svm_type c_svc
kernel_type rbf
gamma 0.25
nr_class 2
total_sv 630
rho 2.6270365744847743
label 1 0
nr_sv 316 314
SV
1.0 1:-0.8237805083319307 2:-0.7834045747098843 3:-0.23379497136132987 4:0.3613047797027844 
1.0 1:-0.740804645682545 2:-0.8428313470216722 3:-0.23266832895644518 4:0.3478459458865264 
1.0 1:-0.8383235145598384 2:-0.7248247559946326 3:0.412096815846978 4:0.05630949582293732 
1.0 1:-0.8493088705605117 2:-0.702940226389945 3:-0.3590305703487672 4:-0.047614488627803375 
1.0 1:-1.0 2:-0.68831422571299 3:0.5959540227006601 4:0.4167345980470514 
1.0 1:-0.8906204342703249 2:-0.8194711373804394 3:0.7738015627229711 4:-0.7885399333573576 
1.0 1:-0.8235657296751389 2:-0.7702873808835327 3:-0.16679976190526424 4:0.2270434851498866 
1.0 1:-0.8678707288335297 2:-0.8163131616114198 3:0.6096791076632846 4:-0.0054184142986818395 
1.0 1:-0.8605130449419289 2:-0.8130790283214213 3:0.24675707525101576 4:0.28726955515074315 
1.0 1:-0.8614623800706952 2:-0.7615692230559634 3:0.46465948839301774 4:0.23372518395126507 
1.0 1:-0.8009758626493857 2:-0.7913856438489844 3:0.40300854896746774 4:0.8213061649245077 
1.0 1:-0.808972900185154 2:-0.8046224698708467 3:-0.4884117996397548 4:0.47555356582688946 
1.0 1:-0.8463828311732031 2:-0.7515892409749743 3:0.30826306732681896 4:0.8020303775096973 
1.0 1:-0.8670311395387982 2:-0.8278108981979433 3:-0.24331358896374966 4:0.46628345069834465 
1.0 1:-0.8529688604612018 2:-0.9255578810768754 3:-0.5330777677917597 4:0.16077700114813243 
1.0 1:-0.8541121023396735 2:-0.7412481424693976 3:0.3353105149911284 4:0.12136184497194846 
1.0 1:-0.8732807271503114 2:-0.6849325927220464 3:0.17293464147068893 4:-0.28778065098973227 
1.0 1:-0.8385706110082478 2:-0.778928356649482 3:-0.5106216805440711 4:0.7128429082798748 
1.0 1:-0.8168045783538125 2:-0.8241741204360433 3:-0.2527387053180231 4:0.16675456691087032 
1.0 1:-0.819896987039219 2:-0.7805286891306786 3:0.3123994427761132 4:0.33915077575151553 
1.0 1:-0.8384243730011782 2:-0.7347456562319923 3:0.41991090705669687 4:0.6482058230452223 
1.0 1:-0.8594822420467935 2:-0.7682632300905209 3:-0.3360340268326807 4:0.19517360912164428 
1.0 1:-0.834923346238007 2:-0.8389210510599875 3:0.3883329360324208 4:0.16749012406859065 
1.0 1:-0.8470513381585592 2:-0.7746833774117469 3:-0.17070476599815543 4:0.23807218709063904 
1.0 1:-0.8379464736576334 2:-0.7522448786824864 3:0.306952144441599 4:0.4735715186123368 
1.0 1:-0.828655714526174 2:-0.816341165722273 3:0.3034563954479452 4:0.2613446569098967 
1.0 1:-0.8572098973236829 2:-0.7897946346876205 3:0.693635742954861 4:-0.010309287469389306 
1.0 1:-0.8488799865342536 2:-0.855728606123762 3:-0.25016490312923645 4:0.46829692203197726 
1.0 1:-0.8345599057397745 2:-0.7773939362828544 3:-0.32860346767139903 4:0.16115990985840156 
1.0 1:-0.8661437468439657 2:-0.7464357332481808 3:0.5204450278329531 4:0.3573721093927589 
1.0 1:-0.8893721595690961 2:-0.5049822403905455 3:-0.284887891391019 4:-0.6944617073424537 
1.0 1:-0.8218811647870728 2:-0.8541795006746139 3:-0.18186557582784502 4:0.7453843293714153 
1.0 1:-0.7809794310722101 2:-0.8380364968219278 3:-0.18828953348797572 4:0.19152841130838594 
1.0 1:-0.8662359872075408 2:-0.7722012228008664 3:0.313509616984454 4:0.24734230221918407 
1.0 1:-0.8540703585255007 2:-0.7104743567500987 3:0.4512108241508961 4:0.11202771774898168 
1.0 1:-0.8030668237670426 2:-0.8264950465013896 3:0.3742692322846606 4:0.6822823705466248 
1.0 1:-0.8437401110924087 2:-0.853787784636216 3:0.30381216293361457 4:0.3855025152505034 
1.0 1:-0.8392378387476855 2:-0.8112819840371582 3:-0.3499997380059642 4:0.036330157297618015 
1.0 1:-0.8648382427200808 2:-0.7672246532427687 3:0.20991526976777308 4:0.17449071948581585 
1.0 1:-0.8570206362565225 2:-0.7181584115573812 3:0.20716889176726938 4:-0.11010949641184842 
1.0 1:-0.8645931661336476 2:-0.7941584606397082 3:-0.32745368813087405 4:0.154735423290973 
1.0 1:-0.8664615384615385 2:-0.7730874504553064 3:0.4904527672048249 4:-0.1668185091739165 
1.0 1:-0.8506581383605454 2:-0.8087243890837476 3:0.24099443136780407 4:0.00545037379164226 
0.09608698211126121 1:-0.7373896650395557 2:-0.8013838969047373 3:-0.18077962756152777 4:0.23321308719589018 
1.0 1:-0.8607304494192897 2:-0.7547584183883352 3:0.4856286744238223 4:0.012994490083322097 
1.0 1:-0.14860797845480556 2:-0.955339559696761 3:0.5173767714454536 4:0.8322068426764164 
1.0 1:-0.8524719744150816 2:-0.8862267904106398 3:-0.13902812189541336 4:0.31466440385076755 
1.0 1:-0.8541450934186164 2:-0.6907591553472485 3:0.5001141545442251 4:0.035211342272750246 
1.0 1:-0.7899749537114964 2:-0.7898352406483575 3:0.0996026333054576 4:0.03975061446664241 
1.0 1:-0.8109678505302138 2:-0.7958237148461877 3:0.42920754425776786 4:0.5548948110783707 
1.0 1:-0.849075913145935 2:-0.8073870220337335 3:0.22565342163190172 4:0.2860230650939104 
1.0 1:-0.8705134489143243 2:-0.810124594626408 3:0.6928611933141027 4:-0.0276352664881101 
1.0 1:-0.8084632216798519 2:-0.7666840714492376 3:0.2803698893044575 4:0.3727478144728855 
1.0 1:-1.0 2:-0.597170407265116 3:0.48276892445868125 4:-0.007048627765166682 
1.0 1:-0.860904898165292 2:-0.8473963586042919 3:0.40754383585536047 4:0.08779623036965822 
1.0 1:-0.8583699713852887 2:-0.8487511428452026 3:0.5609795201643879 4:0.20508268133814567 
1.0 1:-0.8672230264265275 2:-0.7649887982019776 3:0.2585493927828877 4:0.6592985370803963 
1.0 1:-0.854280424171015 2:-0.8783350953667871 3:0.8816773688394908 4:0.7741874441487202 
1.0 1:-0.8286133647534085 2:-0.8792018567490486 3:0.30871056675026187 4:0.013729814469789492 
1.0 1:-0.8578017168826797 2:-0.8104285416832293 3:0.3627123691331282 4:0.22333543909846854 
1.0 1:-0.8390573977444875 2:-0.8643193793983039 3:-0.24727071966223046 4:0.15933847480803465 
1.0 1:-0.8353947146944959 2:-0.8035710179623728 3:-0.33248125160471353 4:0.7360827901237905 
1.0 1:-1.0 2:-0.6691122850199116 3:-0.27584862079874706 4:0.23497167400809738 
1.0 1:-0.8155462043427033 2:-0.8185118258269435 3:-0.21542844088846325 4:0.15821884508378337 
1.0 1:-0.8666487123379902 2:-0.6944368805834327 3:0.8858685929103323 4:0.9968668989421161 
1.0 1:-0.8885904729843461 2:-0.7470538727682333 3:-0.38283500820109384 4:-0.05934627613655996 
1.0 1:-0.8588048476687427 2:-0.8201070356049354 3:0.31142659427283736 4:0.358107666550479 
1.0 1:-0.8903719912472647 2:-0.7744617009683954 3:0.4522102123097591 4:-0.7144090398205623 
1.0 1:-0.8557428042417101 2:-0.7948480106424364 3:-0.2570190754114787 4:0.4181731243871496 
1.0 1:-0.872695101834708 2:-0.710050845800476 3:0.2754461707394036 4:-0.3635738804258498 
1.0 1:-0.8444638276384447 2:-0.7783945709755361 3:0.3476982735137435 4:0.39154525696392506 
0.9426111151251441 1:-0.8918227907759636 2:-0.32384687020234293 3:0.43948492380839155 4:-0.8320466262233599 
1.0 1:-0.8876855748190541 2:-0.8345974554037352 3:-0.16972579295897505 4:-0.6437945052087979 
1.0 1:-0.8453405150648039 2:-0.8152387599925882 3:-0.3479013359041867 4:0.23970274971400296 
1.0 1:-0.863849183639118 2:-0.7522254124103078 3:-0.2521918523121247 4:0.003116725600274206 
0.9757049265637058 1:-0.8615425012624137 2:-0.6662760491635116 3:0.5457699837992414 4:0.04844555183040078 
1.0 1:-0.8444369634741626 2:-0.798643933717234 3:-0.3885813199885594 4:0.13085542050283872 
1.0 1:-0.8565083319306515 2:-0.7657384204376214 3:0.40762862665244226 4:0.22765101811876298 
1.0 1:-1.0 2:-0.728658928586693 3:0.6270691149113325 4:0.5846883675348207 
1.0 1:-1.0 2:-0.5928195246764592 3:0.5535968684839614 4:-0.22157759715426895 
1.0 1:-0.6844976266621781 2:-0.836943858379687 3:-0.14567052133614788 4:0.16163941863843423 
1.0 1:-0.8667968355495708 2:-0.8646813837581137 3:0.42912248125909014 4:0.6699431664546178 
1.0 1:-0.8577613869718903 2:-0.7668138124457393 3:0.804691680314741 4:0.9937978099786544 
1.0 1:-0.8702534926780003 2:-0.7364556828644823 3:0.5631545470153738 4:-0.06605928267139194 
1.0 1:-0.8576717051001514 2:-0.7838232703184944 3:-0.1956740905795723 4:0.25431147351732974 
1.0 1:-0.8239865342534927 2:-0.7854946376174652 3:-0.17672736240532583 4:0.5233438316659753 
1.0 1:-0.8551691634404982 2:-0.7575536726190963 3:-0.3453991227350871 4:0.06938402430141188 
1.0 1:-0.8375216293553274 2:-0.9359033509558535 3:0.3072033865144932 4:0.4069849741384739 
1.0 1:-0.852095606800202 2:-0.7590252886444324 3:-0.3265539257560621 4:0.8274431789951691 
1.0 1:-0.872649048981653 2:-0.8331477303967613 3:0.5808601720137154 4:0.593894470568944 
1.0 1:-0.8866015822252146 2:-0.7886686645231933 3:0.6240815662969783 4:-0.5674578712838521 
1.0 1:-0.8660602592156202 2:-0.7562781536724421 3:0.9653477841531173 4:-0.0611364034534736 
1.0 1:-0.8699047298434607 2:-0.7347126318719983 3:-0.12625370100600963 4:0.08789283043942242 
1.0 1:-0.863726712674634 2:-0.8670309969614072 3:0.13798431043612047 4:-0.17528975336407715 
1.0 1:-0.8439151657970039 2:-0.8066482940802386 3:0.39285542944531215 4:0.02805083300509681 
1.0 1:-0.83422986029288 2:-0.8276271297583078 3:0.23986152832621643 4:0.49208032475034735 
1.0 1:-0.8854266958424508 2:-0.5859585175174233 3:0.29936574986674014 4:-0.5321984966631601 
1.0 1:-0.74965494024575 2:-0.8577605775769999 3:0.5419489538986446 4:0.9791262379371681 
1.0 1:-0.857184312405319 2:-0.9241470886142583 3:0.27094790326853535 4:0.5901224124231041 
1.0 1:-0.8647567076249789 2:-0.8109681672388288 3:0.3763744394263324 4:0.42977677132143643 
1.0 1:-0.8488173708129945 2:-0.8352555520087855 3:-0.23970950373498023 4:0.24203628151974432 
1.0 1:-0.862484430230601 2:-0.8811269686134331 3:-0.09691741900352302 4:0.08974685346513134 
1.0 1:-0.8668271334792123 2:-0.7151595811012591 3:0.3967451902488406 4:0.18072433362624118 
1.0 1:-0.8679771082309375 2:-0.8295645702617387 3:0.36936143751295925 4:-0.11602339923704341 
1.0 1:-1.0 2:-0.7375806284882684 3:-0.12875101454638538 4:0.35698920068248996 
1.0 1:-1.0 2:-0.7049496921004361 3:0.45524839042092635 4:0.4971314609283619 
1.0 1:-0.8398653425349267 2:-0.7568107440489736 3:0.27208502543485724 4:0.04476939544056768 
1.0 1:-0.8079993267126746 2:-0.9057145779425491 3:0.33965213044363196 4:0.12148986916079196 
1.0 1:-0.7979464063289008 2:-0.8081199101055747 3:-0.057702750549490034 4:0.047294730758322245 
1.0 1:-0.8025046961790945 2:-0.7773324638443961 3:0.2873662869204887 4:0.34400987564626484 
1.0 1:-0.8284465241541827 2:-0.9149454159068602 3:0.16019615119192654 4:3.036850144999548E-4 
0.22005080341455927 1:-0.8339437131795995 2:-0.7732428049678323 3:-0.33175147912645886 4:0.670582123542574 
1.0 1:-0.8451627672109072 2:-0.8698474591834364 3:0.3590690868745683 4:0.19373391892528402 
1.0 1:-0.8597286652078775 2:-0.7592926937517258 3:-0.6268067125730121 4:-0.017469796737042964 
1.0 1:-0.8624898165292039 2:-0.7448142610784254 3:-0.5877419727579283 4:0.01663864042594443 
1.0 1:-0.8736172361555293 2:-0.6245905299529698 3:0.673134879769576 4:0.9412136201955039 
1.0 1:-0.8744272008079448 2:-0.7224546519785195 3:0.39279309527988127 4:0.09569299510878948 
1.0 1:-0.8637151994613701 2:-0.7909369975023031 3:0.4163480603696863 4:0.04090143553872094 
1.0 1:-0.8209055714526174 2:-0.723407440623268 3:-0.3521207328401903 4:0.0019020088194001694 
1.0 1:-0.8184144083487629 2:-0.8188567545094038 3:0.31647593387433837 4:0.22806651480437368 
1.0 1:-0.8559300454468944 2:-0.7165636115956457 3:0.3796415390795407 4:0.15447937491328534 
1.0 1:-0.8679602760478033 2:-0.7338318342829555 3:0.4480673040221663 4:0.653032334964629 
1.0 1:-0.8128032317791618 2:-0.7554199642802102 3:0.31809988859469174 4:0.7513944831094952 
1.0 1:-0.8477172193233462 2:-0.7846545142918689 3:0.548825174510144 4:0.7833935471828435 
1.0 1:-0.8508129944453795 2:-0.7331235351864975 3:0.916725910209812 4:0.8287222570273438 
1.0 1:-0.8898219155024407 2:-0.7844147717818817 3:0.4856460953259514 4:-0.7178294969895869 
1.0 1:-0.8925722942265611 2:-0.7689492966550697 3:0.4912503178804257 4:0.7048192832081623 
1.0 1:-0.8484955394714695 2:-0.7635841529832064 3:-0.18131477589880807 4:0.21754990961899634 
1.0 1:-0.8773526342366604 2:-0.6864311200148854 3:-0.29428388217454515 4:-0.27211700787033355 
1.0 1:-0.8486530887056052 2:-0.7755597011733241 3:-0.09075172621745742 4:0.1491407662385038 
1.0 1:-0.8785053021376873 2:-0.7497354371392013 3:0.6063804326249671 4:0.3244151916156073 
1.0 1:-0.8208987712506313 2:-0.7409646862253957 3:-0.21231227702010858 4:-0.022296890584580953 
1.0 1:-0.914458845312237 2:-0.6885184508140902 3:0.5805849762003934 4:0.6484932955419895 
1.0 1:-0.8526705941760646 2:-0.8016560832016887 3:-0.37259587297467556 4:0.10924610128228696 
1.0 1:-0.7914357852213432 2:-0.8592103367353285 3:0.1637276946954236 4:0.5025329178413032 
1.0 1:-0.7382191550244066 2:-0.7689722122140729 3:-0.3342241584224176 4:0.01945179739734515 
1.0 1:-1.0 2:-0.5963405293459295 3:0.6530104713912377 4:0.7878685745110614 
1.0 1:-0.6129372159569095 2:-0.8085044543594858 3:0.5156263790838658 4:-0.2462558889526567 
1.0 1:-0.8624157549234136 2:-0.7429902030725952 3:-0.5552132015596335 4:-0.042755505118680426 
1.0 1:-0.8672136004039723 2:-0.7774233064478956 3:-0.33498523408418557 4:0.3358908143610506 
1.0 1:-0.8330988049149974 2:-0.7780595461859385 3:0.3319716902174352 4:0.5936710101665987 
1.0 1:-0.883662615721259 2:-0.6934191702134016 3:0.6156491691624717 4:0.0011668008185585776 
1.0 1:-1.0 2:-0.6973049113510575 3:-0.09413562757540994 4:0.4131860003035568 
1.0 1:-0.8684187847163778 2:-0.7161530440094539 3:0.5286436037966951 4:0.1260603327025116 
1.0 1:-0.8428883352970881 2:-0.7220106502160775 3:-0.35737966767043283 4:-0.04716698589498147 
1.0 1:-0.8945026089883858 2:-0.648079831714965 3:0.5852494227454781 4:-0.7672820987279947 
1.0 1:-0.8534199629691971 2:-0.7799979770786557 3:0.12182513075373769 4:0.40951054222748096 
1.0 1:-0.8507894293889917 2:-0.8365959926807226 3:0.5199086545884921 4:0.32738768050930545 
1.0 1:-0.8458238680356842 2:-0.7602738280208744 3:-0.4375167701701893 4:-0.07734356744732684 
1.0 1:-0.8147557650227235 2:-0.8212610098802158 3:-0.16381262159330356 4:0.267929755641511 
1.0 1:-0.7981013970712001 2:-0.6943583324676249 3:0.614489318162903 4:0.8544551189849245 
1.0 1:-1.0 2:-0.6812008400427283 3:-0.35100307308796586 4:0.8576196441618882 
1.0 1:-0.872075408180441 2:-0.7968670387322432 3:0.5137377083116279 4:0.7737393594877675 
1.0 1:-0.7790553778825113 2:-0.8316918581459415 3:-0.30444802586132924 4:0.3512350953220975 
1.0 1:-0.8883703080289513 2:-0.824783380603874 3:0.605204930033642 4:0.1668185790052923 
1.0 1:-0.8852967513886552 2:-0.7762488413597959 3:0.3531318256676712 4:-0.07897378091381158 
1.0 1:-0.8975256690792796 2:-0.7660727622001249 3:0.389574039208326 4:0.9991364186534364 
1.0 1:-0.8284699545531056 2:-0.7758953748386608 3:-0.2285079997667232 4:0.38873221637815103 
1.0 1:-0.8562598889075913 2:-0.7438982875940425 3:0.46619906061868277 4:-0.07580913935122202 
1.0 1:-0.8503383268809965 2:-0.7386734718386375 3:0.3871492673932224 4:-0.016127288538577478 
1.0 1:-0.8760739942770577 2:-0.7404943879198354 3:0.6503701159122859 4:0.30302933279740074 
1.0 1:-0.8566477024070022 2:-0.8480879235369474 3:0.22310806450987264 4:0.24194084530624282 
1.0 1:-0.8220191886887729 2:-0.8080085766892559 3:-0.2634450745835776 4:0.12097777240541707 
1.0 1:-0.8651068843629018 2:-0.7999645324520909 3:0.6218526435300298 4:-0.018748525612338973 
1.0 1:-0.8699619592661169 2:-0.8528192522169514 3:0.36274135860307766 4:-0.23257417666218416 
1.0 1:-0.8407938057566067 2:-0.7644297405255545 3:0.2649841024060511 4:0.4047154544271536 
1.0 1:-0.8192088200639623 2:-0.7103752836701169 3:-0.29173131171022837 4:-0.023895214389481167 
1.0 1:-0.8739558996801885 2:-0.7857405273712982 3:-0.4439622317563856 4:0.870726993386957 
1.0 1:-0.8303060090893789 2:-0.743319763645441 3:0.6147238198376574 4:0.6920645824305445 
1.0 1:-1.0 2:-0.6708277075664439 3:0.3338286495037661 4:0.6791818574640831 
1.0 1:-0.8544776973573472 2:-0.7887769243175893 3:0.22135603893871036 4:0.2795974146702196 
1.0 1:-0.8261390338326882 2:-0.7593326508367237 3:-0.47899239951899264 4:0.26703475017586764 
1.0 1:-0.8359501767379229 2:-0.8274649449748421 3:0.3735536142893858 4:0.21400131187550175 
1.0 1:-0.8860461201817875 2:-0.7331597356224786 3:0.34181177790445716 4:-0.3634140829610477 
1.0 1:-0.8797623295741458 2:-0.7042690214499296 3:0.7552568763056742 4:0.6733951641283487 
1.0 1:-0.8402235313920215 2:-0.8013507700906793 3:0.43971983378553947 4:0.00781591164459483 
1.0 1:-0.8655182629187006 2:-0.7895135690384474 3:-0.6232200482463719 4:0.9020219244216652 
1.0 1:-0.7983087022386803 2:-0.7644942865859357 3:0.3701851195417538 4:0.3506275623532211 
1.0 1:-0.8692166301969365 2:-0.8615544857218701 3:0.5272394518649244 4:0.7369777955894341 
1.0 1:-0.884787072883353 2:-0.6101957339473274 3:0.39384610715311075 4:-0.4553823539581815 
1.0 1:-0.8563191381922235 2:-0.856398997216504 3:-0.11510228213137397 4:0.26597913254603833 
1.0 1:-0.8543167816865848 2:-0.7465832671004806 3:-0.4980318123365983 4:0.13577853249200955 
1.0 1:-1.0 2:-0.6401338360171409 3:0.32548117926713926 4:-0.09316712441715391 
1.0 1:-0.8778037367446558 2:-0.751574863254646 3:0.29024100797339725 4:-0.13146323279721805 
1.0 1:-0.7938064298939572 2:-0.7803719344126101 3:-0.2318367530813732 4:0.2415881968587914 
1.0 1:-0.8407567749537115 2:-0.8029002170533744 3:-0.18696595322855258 4:0.33330123417762136 
1.0 1:-0.8880727823598721 2:-0.5978158678689278 3:0.49232279216775265 4:-0.6127866975139786 
1.0 1:-0.8424056556135331 2:-0.7623902557742829 3:0.3302957449922901 4:0.26907964562858 
1.0 1:-0.8836640296246423 2:-0.7888483006489102 3:0.6237605045147694 4:-0.11071691299509889 
1.0 1:-0.8292354822420468 2:-0.7821153610699958 3:0.18119827361581886 4:0.4469436511891127 
1.0 1:-0.8500050496549403 2:-0.7654989511384718 3:0.5829885162910273 4:0.8939028631364507 
1.0 1:-0.8549746507322 2:-0.8256252114972051 3:0.20969356156801977 4:0.3482614425721373 
1.0 1:-0.8521373506143747 2:-0.7692662553780315 3:-0.20041148715232293 4:0.23666624872588282 
1.0 1:-0.8769547214273691 2:-0.7612645588206933 3:-0.3337243962925871 4:0.8880207335872148 
1.0 1:-0.8646793469112943 2:-0.7298361257831687 3:0.3677519094771817 4:-0.018716519565127765 
1.0 1:-0.8631173203164451 2:-0.7159812626953179 3:-0.30356269017109305 4:0.10141451249383993 
1.0 1:-0.859801380239017 2:-0.7631309645063502 3:-0.4155460183677554 4:0.28065186844378665 
1.0 1:-0.8525843460696853 2:-0.7810723786974874 3:0.21054201394202954 4:0.26287861946349667 
1.0 1:-0.8486133647534085 2:-0.8018227418126199 3:0.34908255472902283 4:0.6005435813949802 
1.0 1:-0.8712566907927959 2:-0.6539863085101627 3:0.20847219300780773 4:-0.22816269588588323 
1.0 1:-0.8690320821410537 2:-0.7546252622563637 3:0.2469397225217762 4:0.15802797265677992 
1.0 1:-0.8534495876115132 2:-0.7765039519793976 3:0.16738962276329383 4:0.7031561326094566 
1.0 1:-0.8479045951859956 2:-0.7685044069574055 3:0.36539913498415877 4:0.7481659458381098 
1.0 1:-0.8314425180945969 2:-0.7572343916040151 3:0.3965300148873854 4:0.9557583319044087 
1.0 1:-0.8385860966167312 2:-0.751729193226531 3:0.3034583008591156 4:0.33950342419896695 
1.0 1:-0.828830230600909 2:-0.7424024582582249 3:0.5813683723930145 4:0.703763665578333 
1.0 1:-0.882989328395893 2:-0.7868845977537158 3:0.4726310482258884 4:0.41433705414688804 
1.0 1:-0.8516875946810302 2:-0.7724109121187185 3:-0.2245357618796774 4:0.044545702266969744 
1.0 1:-0.8272344723110587 2:-0.8224088369116502 3:0.49506318173314967 4:0.03613835378560504 
1.0 1:-0.8318316781686586 2:-0.8522031617781809 3:-0.5027464800761021 4:0.5181332471800373 
1.0 1:-0.82039521965999 2:-0.78016429417604 3:0.2718804659356375 4:0.23717718162499546 
1.0 1:-0.8676169668405993 2:-0.7982088454583682 3:0.5165204252251667 4:0.2856704166464594 
1.0 1:-0.7915192728496886 2:-0.7982450458943492 3:-0.1596026156123539 4:0.677295246463032 
1.0 1:-0.8569136509005219 2:-0.805318132966066 3:0.21799571023895137 4:0.1376651434930607 
1.0 1:-0.8875037872412052 2:-0.7051788476904666 3:0.3461344753460549 4:-0.5501957879739268 
1.0 1:-0.8274600235650564 2:-0.8388236855477406 3:0.39882671585168006 4:0.7520660281727936 
1.0 1:-0.8346965157380912 2:-0.7781257998140547 3:0.23486336262472007 4:0.33032874528392364 
1.0 1:-0.8557281265780172 2:-0.6975071556735852 3:-0.061208462121548846 4:-0.14255571406113987 
1.0 1:-0.833046288503619 2:-0.7321017266539025 3:0.3302764186789904 4:0.8346683986710017 
1.0 1:-0.8793098804914997 2:-0.6569755765869691 3:0.7866828227387139 4:0.6912010010839809 
1.0 1:-0.8556660494866184 2:-0.8143927967853384 3:0.24231093438573725 4:0.23215863342232312 
1.0 1:-0.8393341188352129 2:-0.8188649508345316 3:-0.4353293581465957 4:0.7935272436579524 
1.0 1:-0.8376886046120182 2:-0.7286647343169919 3:0.43748056735795204 4:0.07747166146754636 
1.0 1:-0.8840053862986029 2:-0.8067712731085099 3:0.37931802748297017 4:-0.4668584422461294 
1.0 1:-1.0 2:-0.6348871633947284 3:-0.4978891787004157 4:-0.1104931034358746 
1.0 1:-0.7914310722100657 2:-0.835866895409253 3:-0.3397049375532112 4:0.4775996251358643 
1.0 1:-0.7970913314256859 2:-0.8039295047326486 3:-0.19644006587006424 4:0.2938220659070152 
1.0 1:-0.8579276216125231 2:-0.8656827014778893 3:0.3280553897583196 4:-0.3449372828702484 
1.0 1:-0.8313549907422992 2:-0.8210154616399297 3:0.5196692532850138 4:0.6707741598258397 
1.0 1:-0.8194889749200471 2:-0.8056322912779424 3:0.23774012518959675 4:0.3284747222582145 
1.0 1:-0.8834734893115637 2:-0.7924430722445305 3:0.31704088828635535 4:-0.14313112459717914 
1.0 1:-0.855610166638613 2:-0.7977020393546346 3:0.4328852600181923 4:0.6737478125757996 
1.0 1:-0.8418192223531392 2:-0.7129749189411619 3:0.3996690436897852 4:0.10419612896053465 
1.0 1:-0.8232169668405993 2:-0.7908574248458544 3:0.20271335994693684 4:0.3536640633413408 
1.0 1:-0.7975727991920551 2:-0.826617991378306 3:-0.238668060429571 4:0.36047262247530054 
0.15115871317169788 1:-0.8394143746843966 2:-0.6771666088148409 3:0.6817531905939922 4:0.40561045989279765 
1.0 1:-0.8343437131795994 2:-0.7733326230306907 3:-0.2626163568252612 4:0.4489571225227449 
1.0 1:-0.8440067328732537 2:-0.7952421172756632 3:0.43699278209833525 4:0.3948378063297324 
1.0 1:-0.844201245581552 2:-0.9289815885368082 3:0.38257056435080505 4:-0.043970221899554796 
1.0 1:-0.8480902205015991 2:-0.7863125625625069 3:-0.30430607272913623 4:0.38994611845964156 
1.0 1:-0.8517926275037873 2:-0.7990557990549043 3:0.7389118509837804 4:-0.02808288560655825 
1.0 1:-0.8341391011614206 2:-0.8132709589348299 3:0.12910358366330388 4:0.2700386631886451 
1.0 1:-0.8332725130449419 2:-0.863504869588732 3:0.20975997875738717 4:0.2301125741133485 
0.5281805198479594 1:-0.4811923918532234 2:-0.8695380479098631 3:0.4292067276529803 4:0.6287065752280667 
1.0 1:-1.0 2:-0.6741793215166072 3:0.25889549711190685 4:0.3449374690872504 
1.0 1:-1.0 2:-0.6399569319997999 3:0.50001221504661 4:0.5504512078692325 
1.0 1:-1.0 2:-0.6428645783388756 3:0.32840884353042465 4:0.1615439824249323 
1.0 1:-0.8477516243056724 2:-0.756168561975213 3:0.16535940716125652 4:0.19955203638009844 
1.0 1:-0.8598875610166639 2:-0.7494939870614792 3:-0.4908952308987464 4:-0.06442895281928052 
1.0 1:-0.8631469449587612 2:-0.7339598677117223 3:0.2728290884968898 4:0.2972752274370083 
1.0 1:-0.8695377882511361 2:-0.7922955383922307 3:0.604926603901969 4:0.39720276225455375 
1.0 1:-0.8601367446557818 2:-0.7771678543147469 3:0.3034708221325211 4:0.7010786491814025 
1.0 1:-0.8373809796330585 2:-0.8377257536455214 3:-0.1833170908372792 4:0.06557972733710882 
1.0 1:-0.8174004376367615 2:-0.7848402976614317 3:-0.5683360404916207 4:0.4409649215701126 
1.0 1:-0.8344931829658306 2:-0.7844229681070095 3:-0.4398225898879421 4:-0.017821514099484292 
1.0 1:-0.8385766705941761 2:-0.7726209429501175 3:0.16025834925655946 4:0.3423164647847414 
1.0 1:-0.8200437636761488 2:-0.7539917204753419 3:-0.4170427188420871 4:0.06800927728448314 
1.0 1:-0.8358532233630702 2:-0.7668760020626462 3:0.4467101068656658 4:-0.011492114588678826 
1.0 1:-0.8349079279582562 2:-0.8345387150736528 3:-0.19737684766190067 4:0.06225528830971694 
1.0 1:-0.8780131291028447 2:-0.7827731161614991 3:-0.2160061887754814 4:0.08421620850708411 
1.0 1:-1.0 2:-0.7318589105219924 3:0.5378606220310034 4:0.02536570022253981 
1.0 1:-0.8312923750210403 2:-0.8288009459706682 3:0.4591434591555721 4:0.36060064666414426 
1.0 1:-0.8898468271334792 2:-0.6362972728302514 3:0.5516568877109211 4:-0.7342603541570379 
1.0 1:-0.8343847163777142 2:-0.8719521730221831 3:0.4813235339851516 4:0.1781987655372339 
1.0 1:-0.8588951354990743 2:-0.8073938523046733 3:0.47646977123021017 4:-0.09450974900124531 
1.0 1:-0.8577222689782865 2:-0.7675487837502172 3:-0.24227840629504305 4:0.6526808503734403 
1.0 1:-1.0 2:-0.6148573938637454 3:0.48391448487447164 4:-0.013186223763959282 
1.0 1:-0.8652011445884531 2:-0.7829332860150376 3:0.39679935836639824 4:-0.02782707000012319 
1.0 1:-0.8266487123379902 2:-0.8401538808132679 3:0.29802052958045344 4:0.8838331787557638 
1.0 1:-0.887519946137014 2:-0.7007111674687392 3:0.39090047758450464 4:0.2120192646609491 
1.0 1:-0.8416609998316782 2:-0.7425038536303263 3:0.34191208419249786 4:0.1692475470245356 
1.0 1:-0.8382965830668238 2:-0.7715506394938498 3:0.3429882332013676 4:0.20891875157840745 
1.0 1:-0.8355159737417943 2:-0.7549155146199508 3:0.5916004303779427 4:0.804682805931286 
1.0 1:-0.8421188352129271 2:-0.8033578452063415 3:0.41497180910148224 4:0.0024135236466438226 
1.0 1:-0.8106447399427705 2:-0.7945652374255284 3:0.3385060256246497 4:0.15077132886186728 
1.0 1:-0.8710136340683386 2:-0.7504819857529222 3:0.32325960594327685 4:-0.16199153171200464 
1.0 1:-0.8366739606126915 2:-0.8145676858727522 3:-0.21098039461201445 4:0.06589943865233927 
1.0 1:-0.8233785557986871 2:-0.7658825391544513 3:0.3459915695082765 4:0.05634138548452183 
1.0 1:-0.799193469112944 2:-0.7946663254354376 3:-0.2586375860999167 4:0.33803230988352695 
1.0 1:-0.879562363238512 2:-0.6860971197659288 3:0.6676700244321347 4:0.6436027715281607 
1.0 1:-0.791927217640128 2:-0.8441939860741636 3:-0.22387172608680062 4:0.4276992878933821 
1.0 1:-0.5616246423161084 2:-0.8676160096674015 3:0.21373303324922066 4:0.10838368379198515 
1.0 1:-0.8665389665039556 2:-0.8039630072116084 3:0.44070452305823093 4:-0.015999380735360114 
1.0 1:-0.8392863154351119 2:-0.8102030744395063 3:0.37723718238411985 4:0.939550469596798 
1.0 1:-0.8725285305504124 2:-0.8183338972689616 3:0.2893715960765133 4:0.03332531319983034 
1.0 1:-0.8671058744319138 2:-0.8133805847834138 3:-0.5177166151377706 4:0.04665542451348759 
1.0 1:-1.0 2:-0.6993693607426141 3:0.3460432878114723 4:0.8137934727519078 
1.0 1:-0.545377545867699 2:-0.8279997551894289 3:0.6877506083535536 4:0.6503799065430402 
1.0 1:-0.7852886046120182 2:-0.7745352971377719 3:0.3285114635320292 4:0.8457285247308342 
1.0 1:-0.8450765191045279 2:-0.9119059111872916 3:0.2159639975281371 4:-0.09895311943913121 
1.0 1:-0.767041912136004 2:-0.845003099969693 3:0.15979808357827485 4:0.17509825245469224 
1.0 1:-0.8569829994950345 2:-0.8369419459038239 3:0.3335544063960296 4:0.4056744719872192 
1.0 1:-0.8385988890759132 2:-0.8351155314545196 3:-0.540452525625909 4:0.06209537445928848 
1.0 1:-0.8407109914155866 2:-0.8035695836054755 3:0.2275316126427025 4:0.1726366964601067 
1.0 1:-0.830170005049655 2:-0.7743630035533152 3:-0.35074761189033743 4:0.21390587566200026 
1.0 1:-0.8773459013634068 2:-0.7543468945642118 3:0.5595320881788901 4:0.21083678669853834 
1.0 1:-0.8584615384615385 2:-0.8136592256864033 3:0.5469382730482788 4:0.7667061760951999 
1.0 1:-0.8512923750210403 2:-0.7731120735820444 3:0.555638924855415 4:-0.008966662885297683 
1.0 1:-0.8677865679178589 2:-0.7702289820669972 3:0.21134432814555626 4:0.09192093696294923 
1.0 1:-0.8534300622790776 2:-0.8375191037982375 3:0.3489758517034818 4:0.11404118908261407 
1.0 1:-0.8156606631880154 2:-0.7625312667178352 3:0.2712554910717535 4:0.3326296891143232 
1.0 1:-0.8341255680861808 2:-0.7719208401787874 3:0.3218380331093771 4:0.082074712984608 
1.0 1:-0.8505305504123885 2:-0.7061098136195623 3:-0.35730467613079864 4:-0.04035807760414323 
1.0 1:-0.8626210402289177 2:-0.7427753569001837 3:-0.5204306011483777 4:0.21441680856111245 
1.0 1:-0.8089702070358525 2:-0.9179131003274968 3:0.2237211986043406 4:0.6106772778700891 
1.0 1:-0.870197609829995 2:-0.8261309930602979 3:0.18587823565186246 4:0.2224090095137452 
1.0 1:-0.8497114963810806 2:-0.7951905487300677 3:-0.19542910914338096 4:0.3064813304711316 
1.0 1:-0.8203332772260562 2:-0.7007788213023979 3:0.33885634907840356 4:-0.049724210874320884 
1.0 1:-0.8692314425180946 2:-0.7729808982286454 3:0.22384981385834113 4:0.19050538165389863 
1.0 1:-0.7578187510520115 2:-0.844935138773842 3:-0.16723487615609978 4:0.18184279949423 
1.0 1:-0.8717367446557819 2:-0.7443675272076073 3:0.3388349812531357 4:0.12190536584640288 
1.0 1:-0.8338111429052348 2:-0.7384607088988626 3:0.3998172574586807 4:0.7750184375199418 
1.0 1:-0.8506877630028615 2:-0.8253499515783309 3:-0.389833855631487 4:0.29206464295107026 
1.0 1:-0.7820838242720081 2:-0.7522722339176002 3:0.4085000800612941 4:0.2163988557756651 
1.0 1:-0.8737714189530382 2:-0.7754729225810338 3:-0.4980150719384585 4:-0.10167025826889886 
1.0 1:-0.8352129271166471 2:-0.8495209143801188 3:-0.21559598097065868 4:0.4761925229148458 
-1.0 1:-0.8774079111260731 2:-0.8471788486262137 3:0.7335091937109723 4:0.35555067434239196 
-1.0 1:-0.8915805419962969 2:-0.8689400576890831 3:0.43127573198241476 4:0.5496202144980107 
-1.0 1:-0.8652684733209898 2:-0.8815296130853347 3:0.2579117605448005 4:0.3049787920366116 
-1.0 1:-0.8672943948830163 2:-0.8179278718129448 3:0.5101581212264776 4:-0.046144072626120525 
-1.0 1:-0.9301329742467598 2:-0.8995328412284771 3:0.2607810375657935 4:0.21502434152998884 
-1.0 1:-0.8885817202491163 2:-0.6916757435560159 3:0.5770086555343925 4:-0.6654359468621871 
-1.0 1:-0.8674701228749369 2:-0.8540124663987809 3:-0.4787651111865261 4:-0.1423319045019159 
-1.0 1:-0.8720107725972058 2:-0.8008060559832297 3:0.6132219475330061 4:0.6128501975116452 
-1.0 1:-0.8143141558660159 2:-0.8872998601266381 3:0.4268574917807024 4:0.3704142826671437 
-1.0 1:-0.8543544857768053 2:-0.8857083728463084 3:-0.4904859757995089 4:-0.07497802959437427 
-1.0 1:-0.9056549402457499 2:-0.8251836344809467 3:-0.408212771276961 4:0.5773991357645663 
-1.0 1:-0.8926133647534085 2:-0.8792995296234878 3:0.34690167554372775 4:0.2819309464759614 
-1.0 1:-0.5282046793469113 2:-0.9299292544783516 3:0.229322154739666 4:0.7017816183637804 
-1.0 1:-0.8832129944453796 2:-0.929283452360993 3:0.37804589332514715 4:0.5440907333962257 
-1.0 1:-0.8676216125231443 2:-0.8087421477881911 3:0.4185978065587108 4:0.19136896300046247 
-1.0 1:-0.8672163608820064 2:-0.8279235976684501 3:0.16539874029184487 4:0.14217159494035858 
-1.0 1:-0.88864366268305 2:-0.8407201102741779 3:0.5395294900146588 4:0.46839235824547876 
-1.0 1:-0.8859316613364754 2:-0.8544264149690879 3:-0.42720005748897705 4:0.5836653378803336 
-1.0 1:-0.8629011950850025 2:-0.8816853432627623 3:-0.19432710098291317 4:-0.03003281038827388 
-1.0 1:-0.8887231105874432 2:-0.8780502730685972 3:0.5969701512576631 4:0.38895567678049603 
-1.0 1:-0.8784648375694327 2:-0.7944115563293828 3:-0.1749644487703328 4:-0.37661628647148726 
-1.0 1:-0.8736434943612187 2:-0.8754841402765119 3:0.27109625313822905 4:0.08754134584823325 
-1.0 1:-0.46130617741121027 2:-0.9091788572118643 3:0.2758471236899702 4:0.45598914205905006 
-1.0 1:-0.9200201312910284 2:-0.8371314859224035 3:0.4518816649836668 4:-0.1247182202151752 
-1.0 1:-0.8769351287662009 2:-0.8654832234150922 3:-0.29027516927366626 4:-0.1513466695665311 
-1.0 1:-0.7254502608988386 2:-0.9093766277069264 3:0.5492646439865119 4:0.6015025989550458 
-1.0 1:-0.8774212422151153 2:-0.892538643786115 3:0.25897647708664784 4:-0.06836092481554878 
-1.0 1:-0.8765446894462212 2:-0.9056145144732809 3:0.4128900112970466 4:0.2820263826894629 
-1.0 1:-0.8690173371486282 2:-0.9104397593787074 3:0.20637855443395625 4:0.5896429036430715 
-1.0 1:-0.8605621275879481 2:-0.9166904818292714 3:-0.6032273854403858 4:0.09789850272568756 
-1.0 1:-0.8684894798855411 2:-0.8440519164386155 3:0.3288562068530696 4:-0.13347716967335554 
-1.0 1:-0.6714843292375021 2:-0.848415776542058 3:0.4249108420685659 4:0.44950064339719953 
-1.0 1:-0.849823329405824 2:-0.8359805852690461 3:-0.4387102380668352 4:0.5812992180992498 
-1.0 1:-0.8853802390170005 2:-0.85467128018228 3:0.42614391529739626 4:0.4927518698136455 
-1.0 1:-0.880437636761488 2:-0.8077066445623617 3:-0.16944093398900362 4:-0.40151838782909877 
-1.0 1:-0.8559165123716546 2:-0.874267703173487 3:0.4059799015868739 4:0.2534804801461077 
-1.0 1:-0.855424339336812 2:-0.7998446953484519 3:-0.5198759903969999 4:-0.2285463029099094 
-1.0 1:-0.8408375694327554 2:-0.9051247840468968 3:-0.15245555441306502 4:0.0300327638340232 
-1.0 1:-0.8730854064972227 2:-0.9012848398758923 3:-0.23096448306773376 4:0.04029413534109727 
-1.0 1:-0.8800558828480054 2:-0.8035532251065747 3:0.2148674333995848 4:-0.4024455157275796 
-1.0 1:-0.8458508668574314 2:-0.8520761187387005 3:0.8152939324699144 4:0.6601609545706981 
-1.0 1:-0.9457465140548729 2:-0.8598626617614347 3:0.5081485929457188 4:0.3529285061836209 
-1.0 1:-0.18392930483083658 2:-0.9234972224856904 3:0.41287122938693854 4:0.5704311283226831 
-1.0 1:-0.8774670930819727 2:-0.7807746130358665 3:-0.36008589593556073 4:-0.10365218909782559 
-1.0 1:-0.7895579195421646 2:-0.9252702925189549 3:-0.31061066998952225 4:0.20479520884137847 
-1.0 1:-0.8389429388991753 2:-0.8221732267155816 3:-0.3407142610703199 4:0.22170487647510506 
-1.0 1:-0.9148763507826965 2:-0.8589166350849168 3:-0.08335621301163099 4:-0.17078237083176961 
-1.0 1:-0.8822696515738091 2:-0.6177042507914567 3:-0.17008768498054894 4:-0.25677295968053915 
-1.0 1:-0.8596970207035852 2:-0.87346681975444 3:0.4487376004517456 4:0.5142971769397755 
-1.0 1:-0.8606578017168827 2:-0.7890368161268488 3:0.5988260217376109 4:0.4681688978431333 
-1.0 1:-0.8558020535263424 2:-0.9359689557082305 3:0.18565271662976834 4:0.20847066691745453 
-1.0 1:-0.8527493687931325 2:-0.9341247484031279 3:0.26147433503021533 4:0.34519351746493765 
-1.0 1:-0.8598936206025922 2:-0.8869975864861969 3:0.6802239620289661 4:0.37546541884515827 
-1.0 1:-0.8218212422151153 2:-0.8040080528484563 3:0.5575120801366942 4:0.801838341226432 
-1.0 1:-0.8769870392189867 2:-0.8097137538293786 3:-0.3825577708758039 4:-0.08038041759232528 
-1.0 1:-0.883265376199293 2:-0.7866113869161235 3:0.6138207910436964 4:0.1612239219528231 
-1.0 1:-0.877158727486955 2:-0.9103758963454202 3:-0.4116431918876303 4:0.02632460139697912 
-1.0 1:-0.8836121865005891 2:-0.9301867556927823 3:-0.7699681476497672 4:0.8956602860923959 
-1.0 1:-0.8780306345733042 2:-0.8536545943528897 3:-0.25976382020240774 4:0.1454641443061655 
-1.0 1:-0.4458212422151153 2:-0.8916370480220606 3:0.6015730802421042 4:0.45886735859550853 
-1.0 1:-0.8264736576333951 2:-0.8822078589896575 3:-0.14216919220978086 4:0.23877515627301715 
-1.0 1:-0.8301633395051338 2:-0.790552453248392 3:-0.202056945798742 4:0.5095975253529501 
-1.0 1:-0.3169897323682882 2:-0.9080361870349893 3:0.6663894520248428 4:0.577431723739908 
-1.0 1:-1.0 2:-0.74395190522092 3:0.2628995825856577 4:-0.18481580048468338 
-1.0 1:-0.8682780676653762 2:-0.865668323757561 3:0.7760315742963027 4:0.68477535066029 
-1.0 1:-0.6268096280087527 2:-0.9434873422938679 3:0.35138728564039257 4:0.7696798288451603 
-1.0 1:-0.8966435953543175 2:-0.8199704301861392 3:-0.28475669022185857 4:0.052153714267445084 
-1.0 1:-0.887109914155866 2:-0.8842706008134791 3:0.5109906498071346 4:0.05630949582293732 
-1.0 1:-0.9256824776973573 2:-0.9028864701085675 3:0.3294364045544498 4:0.2527449229883878 
-1.0 1:-0.8945699377209224 2:-0.8391429665628218 3:0.6240210014419199 4:0.6552064184624473 
-1.0 1:-0.8786931493014645 2:-0.6799174662844933 3:-0.22907240977554888 4:0.4955008983049982 
-1.0 1:-0.8600370308028952 2:-0.807508600856462 3:0.8302397054887614 4:0.5265397809620187 
-1.0 1:-0.8697276552768894 2:-0.8902508445348268 3:0.23164580366194154 4:0.20955770866636358 
-1.0 1:-0.8626803568422825 2:-0.9123279877800169 3:0.22749159900812432 4:0.3430508580861993 
-1.0 1:-0.866992088873927 2:-0.7997186768496125 3:0.4300003314054428 4:0.0032446334034916813 
-1.0 1:-0.37451600740616064 2:-0.8981530923472815 3:-0.18623073671838253 4:0.5211057360737352 
-1.0 1:-0.8825194411715199 2:-0.9385514469992166 3:-0.4366507607932526 4:0.5362265566324367 
-1.0 1:-0.871657970038714 2:-0.8455395494493054 3:-0.32982565283639853 4:0.21192382844744717 
-1.0 1:-0.8518229254334287 2:-0.6888018387553828 3:0.5564283094831428 4:0.7855990547997413 
-1.0 1:-0.27220737249621285 2:-0.9076321765088998 3:0.3060010720659849 4:-0.7103172703594918 
-1.0 1:-0.8978891095775122 2:-0.6280432319130421 3:0.3646079810460585 4:-0.7611763923907869 
-1.0 1:-0.8845918195589968 2:-0.8670651483161061 3:0.5438930176956214 4:0.7798135253202692 
-1.0 1:-0.8327014307355665 2:-0.7755019512325281 3:0.4393885644434896 4:0.6018540835462345 
-1.0 1:-0.8782555125399765 2:-0.8927486746175142 3:0.3500594862562352 4:0.1866378872945571 
-1.0 1:-0.8747550244066655 2:-0.7797674212830825 3:-0.1486180563159244 4:-0.366035320034809 
-1.0 1:-0.8830998148459855 2:-0.875618013586932 3:-0.24546180395755268 4:0.14329122466460942 
-1.0 1:-0.8777108904224878 2:-0.7221916182446276 3:-0.20464857719205132 4:-0.3644049901826978 
-1.0 1:-0.8576401279245919 2:-0.8756439686165033 3:-0.2575539515471633 4:0.33448371214003236 
-1.0 1:-0.8544824776973574 2:-0.8645037967136786 3:0.40610538652252326 4:0.4066649136663645 
-1.0 1:-0.5473172866520788 2:-0.9334260116859857 3:0.8128480650311387 4:0.4621273199859737 
-1.0 1:-0.8869449587611513 2:-0.8490352821162985 3:0.39608523747990043 4:0.36475677737651524 
-1.0 1:-0.40529271166470293 2:-0.8485178890926082 3:0.44221007008442537 4:-0.5106209507185666 
-1.0 1:-0.8650099309880491 2:-0.9279505249870896 3:0.2630120018447102 4:0.2305606587743012 
-1.0 1:-0.8788042417101498 2:-0.846896382771498 3:0.7280829910001305 4:0.7134504412487512 
-1.0 1:-0.8643796667227739 2:-0.8199771921543697 3:0.49863800529037383 4:0.12324729211673735 
-1.0 1:-0.8507861302810975 2:-0.8856912971689589 3:-0.16734906472552458 4:0.21675034036685425 
-1.0 1:-0.4789045615216293 2:-0.9757504583461852 3:0.7566343524810595 4:0.6762082047141229 
-1.0 1:-0.8880255849183639 2:-0.8732127336754791 3:0.30829627592150266 4:0.6127861854172232 
-1.0 1:-0.8835266790102676 2:-0.855906193168197 3:0.29684366598114953 4:0.4619678716780502 
-1.0 1:-0.8771250631206867 2:-0.6711729436110966 3:0.30789518687013806 4:-0.2818028524557419 
-0.5807745540522806 1:-0.8810011782528194 2:-0.9161918720506655 3:-0.6094681514265643 4:0.07024644179171369 
-1.0 1:-0.8708042417101498 2:-0.907555335960827 3:-0.4806916179805759 4:0.6318385124296879 
-1.0 1:-0.4958639959602761 2:-0.9089787644246827 3:0.3183147917545508 4:-0.49179254965095187 
-1.0 1:-0.8705807103181282 2:-0.7726844644698578 3:0.24948752945816688 4:0.5642929503957594 
-1.0 1:-0.2619962969197106 2:-0.8665118963699818 3:0.2894361078547103 4:0.6090467152467256 
-1.0 1:-0.8736899511866689 2:-0.8858039966394657 3:0.29431069403172816 4:0.43358141744261847 
-1.0 1:-0.8818246086517422 2:-0.7884828811536305 3:0.3447620349001914 4:-0.4203467888967135 
-1.0 1:-0.8470494529540482 2:-0.8681751356465341 3:0.7648089747043736 4:0.4553501849710939 
-1.0 1:-0.8774280424171015 2:-0.8500304525922284 3:0.6201138197362626 4:0.5953970090034639 
-1.0 1:-0.8816158222521461 2:-0.7174855957184556 3:0.24238075409505178 4:-0.4322064842086877 
-1.0 1:-0.865058340346743 2:-0.8379070290362638 3:-0.29469694809612346 4:-0.2247422387168585 
-1.0 1:-0.8675684228244404 2:-0.8236813505390909 3:0.4615664616603028 4:-0.09732278958701979 
-1.0 1:-0.8822784043090389 2:-0.8901459998759008 3:0.3163831131301815 4:0.449660091705123 
-1.0 1:-0.26523346238007073 2:-0.9132579291684716 3:-0.35300552412723496 4:-0.6061375866879424 
-1.0 1:-0.9812287897660327 2:-0.8011769738466159 3:0.432009451383808 4:0.4333253690649308 
-1.0 1:-0.9382568389160074 2:-0.9161850417797257 3:-0.26185378405471627 4:0.2979456086440444 
-1.0 1:-0.992445655613533 2:-0.5555979631899828 3:-0.21749962283066404 4:-0.45768399610233845 
-1.0 1:-0.9716142332940583 2:-0.850891066730644 3:0.49878662736166346 4:0.5016379123756596 
-1.0 1:-0.9850596936542669 2:-0.8151618852931607 3:0.5188559149168581 4:0.4650043726661699 
-1.0 1:-0.9298164618751052 2:-0.8492005405216871 3:0.32948199832174097 4:0.15022780798741286 
-1.0 1:-0.9921676485440162 2:-0.7869651949508055 3:0.4385358929447454 4:0.43923892273324716 
-1.0 1:-0.9031004208045783 2:-0.8700516842845366 3:-0.32987941265156273 4:-0.016958398295425225 
-1.0 1:-0.9650093182965831 2:-0.9123328031210295 3:-0.24232291125595118 4:0.6359306310476374 
-1.0 1:-0.9100427537451607 2:-0.8927985355953747 3:0.3434583253572594 4:0.6146727964182743 
-1.0 1:-0.9565905066487124 2:-0.8635827346774457 3:-0.3405079322607275 4:0.17094212174232126 
-1.0 1:-0.9809937788251136 2:-0.8623119627690947 3:0.25960716818404306 4:0.07536159006414977 
-1.0 1:-0.9962497438141728 2:-0.678754544354282 3:0.2878574747000524 4:-0.6026532338101223 
-1.0 1:-0.9845884463894967 2:-0.7181959780475502 3:0.4421614820995805 4:-0.3189483725349801 
-1.0 1:-0.9072640296246424 2:-0.9184591463377796 3:0.3011411847751384 4:0.5174942900920809 
-1.0 1:-0.9883521090725467 2:-0.8423429826494759 3:-0.21319883761752567 4:0.3376168131979158 
-1.0 1:-0.9730583874768558 2:-0.8846503638777323 3:-0.2045885567401845 4:0.22854602358440657 
-1.0 1:-0.9909442787409527 2:-0.6521780284302037 3:-0.24428439595505724 4:-0.41264287514023157 
-1.0 1:-0.9909442787409527 2:-0.6521780284302037 3:-0.24428439595505724 4:-0.41264287514023157 
-1.0 1:-0.9010328227571116 2:-0.9239514013518328 3:0.3420220536371883 4:0.5615439219044069 
-1.0 1:-0.9010328227571116 2:-0.9239514013518328 3:0.3420220536371883 4:0.5615439219044069 
-1.0 1:-0.9852825786904561 2:-0.8614100254914933 3:-0.24357993822520896 4:0.6084077581587692 
-1.0 1:-0.979136165628682 2:-0.8881922008735691 3:0.32870962629374856 4:0.6329255541785972 
-1.0 1:-0.9896044504292206 2:-0.7524736927589699 3:0.3130346251998384 4:-0.36066493808406885 
-1.0 1:-0.9074748358862145 2:-0.8933982333838897 3:-0.23295032980966102 4:0.024246768812045794 
-1.0 1:-0.998747037872412 2:-0.8836125042084287 3:-0.313871509006028 4:0.6070960921512523 
-1.0 1:-0.998747037872412 2:-0.8836125042084287 3:-0.313871509006028 4:0.6070960921512523 
-0.5950532277210795 1:-0.9565359501767379 2:-0.9226317930062622 3:-0.44427458308752965 4:0.33087226615837806 
-1.0 1:-0.9858071166470291 2:-0.8473984076855738 3:-0.40263726599084004 4:0.1367701380274171 
-1.0 1:-0.9793799091062111 2:-0.8577889573527547 3:0.42883816669231 4:0.8487336015998739 
-1.0 1:-0.907705773438815 2:-0.8848819100625918 3:-0.39581412469051536 4:0.5572609308594545 
-1.0 1:-0.9269483925265107 2:-0.8020717393397306 3:0.5747891237224982 4:0.6274915092903137 
-1.0 1:-0.9269483925265107 2:-0.8020717393397306 3:0.5747891237224982 4:0.6274915092903137 
-1.0 1:-0.9875037670425855 2:-0.7207471183949227 3:-0.1384608537698323 4:-0.31319426717458754 
-1.0 1:-0.9875037670425855 2:-0.7207471183949227 3:-0.1384608537698323 4:-0.31319426717458754 
-1.0 1:-0.9076923750210403 2:-0.8326508623372451 3:0.47036565044510725 4:0.3401423812869231 
-1.0 1:-0.9770881333108904 2:-0.814881912487338 3:0.25142247450168553 4:-0.22892990993393558 
-1.0 1:-0.9899410671604107 2:-0.7687092126315356 3:0.2643881170121163 4:-0.36542790345155896 
-1.0 1:-0.9921023127419626 2:-0.8214969957411861 3:0.509532601959402 4:0.2851268957720048 
-1.0 1:-0.9076922403635752 2:-0.8898952947810552 3:-0.1281031747484569 4:0.11733373844842099 
-1.0 1:-0.9546951354990743 2:-0.8973382751755172 3:0.20278331575704933 4:0.7316065989393103 
-1.0 1:-0.971701713516243 2:-0.8420560771186494 3:-0.3240657309691446 4:0.5218727173505353 
-1.0 1:-0.998458145766706 2:-0.6311988170872327 3:0.40038289237468727 4:-0.7207064332841568 
-1.0 1:-0.9539114694495876 2:-0.8431848135428072 3:-0.24452420556092902 4:0.5071045452392848 
-1.0 1:-0.9624978488469954 2:-0.7703075301828051 3:0.32089063545530583 4:-0.05880287164773179 
-1.0 1:-0.9624978488469954 2:-0.7703075301828051 3:0.32089063545530583 4:-0.05880287164773179 
-1.0 1:-0.9575761992930483 2:-0.8481111464581427 3:0.21945294148189665 4:0.21937134466936326 
-1.0 1:-0.9639252516411378 2:-0.7280623385714555 3:0.4532018427231428 4:-0.11228323075278823 
-1.0 1:-0.9910655041238848 2:-0.7166010756317507 3:0.2732718243924068 4:-0.28247416474778775 
-1.0 1:-0.9972193098804915 2:-0.8378998914031317 3:0.4982812850991196 4:0.5765681423933444 
-1.0 1:-0.9733223632385121 2:-0.7776159200883982 3:0.3407477418665992 4:0.34794254595629015 
-1.0 1:-0.9077933681198451 2:-0.8990888736173897 3:0.3109364952996567 4:0.38297811101775814 
-1.0 1:-0.9776340750715368 2:-0.6601021672610203 3:-0.22797788715896472 4:0.26812062806851444 
-1.0 1:-0.9889647668742636 2:-0.7381642409887202 3:-0.17081623255162248 4:-0.3412930161419997 
-1.0 1:-0.9899006901195085 2:-0.8328830573978437 3:0.6383164848484766 4:0.49044976212698344 
-1.0 1:-0.9254266958424507 2:-0.8399011266371403 3:-0.4267456169248419 4:0.5101736342027468 
-1.0 1:-0.9931257633395051 2:-0.8531143199215511 3:0.351538357526044 4:0.5180378109665358 
-1.0 1:-0.9724989126409695 2:-0.8324384067596623 3:0.35891161825141626 4:-0.10074324675604451 
-1.0 1:-0.971307207540818 2:-0.8539803982767186 3:-0.1828476791853768 4:0.13088800847818094 
-1.0 1:-0.971307207540818 2:-0.8539803982767186 3:-0.1828476791853768 4:0.13088800847818094 
-1.0 1:-0.9934152715031139 2:-0.716109364426794 3:-0.09144690187288995 4:-0.48677376867702704 
-1.0 1:-0.9594141390338327 2:-0.8303387131700564 3:0.4327622248969052 4:0.004715049405174865 
-1.0 1:-0.9839353778825114 2:-0.5587777958260097 3:0.39932239495757393 4:0.12398284927445724 
-1.0 1:-0.9587570913987544 2:-0.8237929913176021 3:0.4613752400392759 4:0.7758168429158216 
-1.0 1:-0.9583706042753746 2:-0.8728913352764065 3:0.3703145514005419 4:0.19095346631485155 
-1.0 1:-0.9917318498569264 2:-0.7458551602182972 3:0.2960074626789495 4:-0.4491488562033824 
-1.0 1:-0.9438094394883016 2:-0.8905021985054117 3:-0.1854489737353362 4:0.06689046225961559 
-1.0 1:-0.9076923076923077 2:-0.8983136720170763 3:0.24216421772561803 4:0.37086236732809663 
-1.0 1:-0.9076923076923077 2:-0.8983136720170763 3:0.24216421772561803 4:0.37086236732809663 
-1.0 1:-0.9076908937889244 2:-0.9097604889337436 3:0.41450348625596267 4:0.6787023486840504 
-1.0 1:-0.9857956640296246 2:-0.8849365522301103 3:-0.37341315826596966 4:0.1956845420207569 
-1.0 1:-0.8997474499242551 2:-0.8336002016951687 3:0.4752007673907388 4:0.032206498174963016 
-1.0 1:-0.9676687291701733 2:-0.9075003522797616 3:-0.23900627091231286 4:0.43223832731602174 
-1.0 1:-0.9074526174044774 2:-0.870743590730739 3:0.4795020970070685 4:0.32399853107373433 
-1.0 1:-0.9790472984346069 2:-0.740360173095868 3:0.263169470467862 4:0.5009035190742015 
-1.0 1:-0.9736616731190035 2:-0.8658541412784784 3:-0.08277326607413382 4:0.15470283531563078 
-1.0 1:-0.907685574819054 2:-0.8271011988959427 3:0.5716257328772776 4:0.6023021682071874 
-1.0 1:-0.9076916344049824 2:-0.8622815680634126 3:-0.30073152137350756 4:0.6586269920170984 
-1.0 1:-0.9787234539639791 2:-0.8214153740034553 3:0.6124807425877292 4:0.4712065626875155 
-1.0 1:-0.9076909611176569 2:-0.8684916504018848 3:-0.4016161017043155 4:0.5509947287436869 
-1.0 1:-0.9076909611176569 2:-0.8684916504018848 3:-0.4016161017043155 4:0.5509947287436869 
-1.0 1:-0.9971136206025921 2:-0.7807906300212203 3:0.6165933003973936 4:0.13750453132887497 
-1.0 1:-0.9645615216293554 2:-0.8666713831964263 3:-0.18915322915134836 4:0.42699631871100396 
-1.0 1:-0.9511799427705774 2:-0.8151209719702313 3:0.630694159662976 4:0.6250299532957286 
-1.0 1:-0.9533768860461201 2:-0.8678530200690129 3:-0.4831847123962172 4:0.8761610382752405 
-1.0 1:-0.9533768860461201 2:-0.8678530200690129 3:-0.4831847123962172 4:0.8761610382752405 
-1.0 1:-0.9705235414913315 2:-0.7887561261425775 3:-0.06125378368724421 4:-0.17797488614663404 
-1.0 1:-0.9630567244571621 2:-0.9051165535704143 3:-0.5056269173625217 4:0.54770217937788 
-1.0 1:-0.988008813331089 2:-0.7736543629433102 3:0.2512262171511366 4:-0.35388791945481524 
-1.0 1:-0.957091493014644 2:-0.761858519181619 3:0.19595078350167072 4:0.08824431503061114 
-1.0 1:-0.9474438579363743 2:-0.8923344186850148 3:-0.6025919308150649 4:0.7786938955960179 
-1.0 1:-0.9649217370812995 2:-0.6841265865997945 3:0.23203722955665618 4:-0.4134100891882839 
-1.0 1:-0.9749146608315098 2:-0.8305187591120297 3:0.7255641735336888 4:0.6168783040351724 
-1.0 1:-0.9741868372327891 2:-0.7865847488594583 3:0.4389224192107364 4:-0.07296409271823667 
-1.0 1:-0.9949786231274196 2:-0.8735269261387102 3:-0.0902556524192496 4:0.22394297206734493 
-1.0 1:-0.9066540986365932 2:-0.885641128828906 3:0.2144815876375834 4:0.048189852609592077 
-1.0 1:-0.9639339841777479 2:-0.8487439710607158 3:0.5403198273479717 4:0.7715978639652912 
-1.0 1:-0.9639339841777479 2:-0.8487439710607158 3:0.5403198273479717 4:0.7715978639652912 
-1.0 1:-0.974862137687258 2:-0.8628863885551324 3:-0.24351896506775683 4:0.05381593378114102 
-1.0 1:-0.9404120787746171 2:-0.90805087211751 3:0.3095632382490059 4:0.6559093876448256 
-1.0 1:-0.9661929102844639 2:-0.8436649815898756 3:-0.4654269607922864 4:-0.0509390440408215 
-1.0 1:-0.9992135855916512 2:-0.8694451562250818 3:0.29475166061687275 4:0.3641178202885589 
-1.0 1:-0.895746170678337 2:-0.8673988412028704 3:0.4730530968001272 4:0.27112570493755417 
-1.0 1:-0.8818380743982495 2:-0.8077818116940543 3:0.3448638382970086 4:0.020826311643021622 
-1.0 1:-0.9076922403635752 2:-0.8402153191003715 3:0.5450969653537043 4:0.8301922074865216 
-1.0 1:-0.9726436424844302 2:-0.8121811892063837 3:0.18692335367881463 4:0.12391883718003527 
-1.0 1:-0.9909308197273187 2:-0.7249818522262481 3:0.6715576076228966 4:0.7276436683664673 
-1.0 1:-0.9076909611176569 2:-0.8671935574097746 3:0.499820449022391 4:0.4370019909972691 
-1.0 1:-0.9632114458845312 2:-0.8243929623169547 3:0.33647050209149487 4:0.4014543291804267 
-1.0 1:-0.9632114458845312 2:-0.8243929623169547 3:0.33647050209149487 4:0.4014543291804267 
-1.0 1:-0.9858044234977277 2:-0.9096928692514394 3:-0.422159156136945 4:0.8644933792465319 
-1.0 1:-0.9671502777310217 2:-0.9188386020398406 3:-0.340143182122398 4:0.42137023753945524 
-1.0 1:-0.8920653088705606 2:-0.8318755924342223 3:-0.19967218761821648 4:0.1892588915970661 
-1.0 1:-0.9771506009089379 2:-0.870214927759998 3:0.4608667674583806 4:0.6972111548220608 
-1.0 1:-0.9828722437300118 2:-0.8957072064750914 3:-0.22943076317637767 4:0.3955407755121103 
-1.0 1:-0.9762854603602087 2:-0.855659961900817 3:-0.3194572218519903 4:0.6720532378580142 
-1.0 1:-0.9559690557145262 2:-0.8477692913976054 3:-0.38979914992802656 4:0.5664984580126573 
-1.0 1:-0.9075711159737418 2:-0.7627792055529501 3:-0.3460058600920546 4:0.724287106906238 
-1.0 1:-0.9750580844975594 2:-0.8220540043363272 3:0.3337951687074867 4:-0.12583715162566922 
-1.0 1:-0.969527008921057 2:-0.7335674686462303 3:0.17069020321278172 4:-0.15208187756737235 
-1.0 1:-0.9916357380912304 2:-0.8575574111678953 3:-0.20893752163577384 4:0.30098327348842635 
-1.0 1:-0.9916357380912304 2:-0.8575574111678953 3:-0.20893752163577384 4:0.30098327348842635 
-1.0 1:-0.8497895977108231 2:-0.8623181441642952 3:0.8181432026736184 4:0.742571288785641 
-1.0 1:-0.8612556808618078 2:-0.8508842023083495 3:0.4800965852922263 4:0.24814187147132616 
-1.0 1:-0.8540333277226057 2:-0.8128997337092514 3:0.6739102460151214 4:0.49281588190806747 
-1.0 1:-0.8862077091398755 2:-0.7328195198269669 3:-0.22728976152486258 4:-0.562247286797914 
-1.0 1:-0.8790909947820232 2:-0.8650535993729784 3:0.3863458643833124 4:0.3927917470207578 
-1.0 1:-0.34366672277394383 2:-0.8733424746719808 3:0.722157978865043 4:0.26332554026818733 
-1.0 1:-0.8904096953374853 2:-0.896040182183407 3:-0.759788896774418 4:0.6312309794608115 
-1.0 1:-0.8852462548392527 2:-0.9306850239578413 3:-0.385822829017044 4:1.0 
-1.0 1:-0.8826459518599562 2:-0.7978096161219366 3:0.4419081985147184 4:0.6786057486142867 
-1.0 1:-0.8788493519609494 2:-0.797191818115431 3:0.5891461246896985 4:-0.08865974188484638 
-1.0 1:-0.8817438141726982 2:-0.9226123267340838 3:-0.4149485358650441 4:0.609493636051416 
-1.0 1:-0.8827624978959772 2:-0.8096201791175033 3:0.5199471711142931 4:-0.37194922286000376 
-1.0 1:-0.8659653257027436 2:-0.9127067263036291 3:0.5162291695176948 4:0.24868539234578058 
-1.0 1:-0.8875610166638613 2:-0.880742765873069 3:0.5516001336782035 4:0.48447219636424554 
-1.0 1:-0.847130112775627 2:-0.8736392499443153 3:0.7447255326661986 4:0.7612081191124949 
-1.0 1:-0.8649042248779667 2:-0.8396983017415828 3:0.5307620127157613 4:0.40979801472424815 
-1.0 1:-0.8696717051001515 2:-0.8755039480622373 3:0.29240528286135037 4:0.32719564422603975 
-1.0 1:-0.8975196094933513 2:-0.9344802640055448 3:-0.6418352348769727 4:0.58277033241469 
-1.0 1:-0.9087427032486113 2:-0.871907810412429 3:0.19725354033901743 4:0.3148250160149533 
-1.0 1:-0.8785483925265107 2:-0.7541006632968319 3:0.17514723214189098 4:-0.38208268656386024 
-1.0 1:-0.8750984682713348 2:-0.8715799574073183 3:-0.1169196360855207 4:0.032941706175804164 
-1.0 1:-0.8713422656118499 2:-0.8313124365952351 3:0.22525750441085668 4:-0.15847517278697343 
-1.0 1:-0.8785645514223195 2:-0.900382185419842 3:0.22040129184155322 4:0.19811351004000022 
-1.0 1:-0.15759636424844314 2:-0.902360573397557 3:0.37118477990221277 4:-0.4895229135540058 
-1.0 1:-0.8554600235650563 2:-0.8592451711171215 3:0.5961519132607838 4:0.5123791418196448 
-1.0 1:-0.8776703585255008 2:-0.7763010587811306 3:0.22397026306446866 4:-0.3447134733110242 
-1.0 1:-0.8798875610166639 2:-0.9127951783122996 3:-0.36543656270357705 4:0.5404455355829674 
-1.0 1:-0.8591415586601583 2:-0.8110808667093355 3:0.5556416468713723 4:0.1648051076716599 
-1.0 1:-0.8677697357347248 2:-0.8879726076628544 3:-0.5118312083348673 4:0.6863744891645738 
-1.0 1:-0.8116343376535937 2:-0.7158463648442567 3:0.2342901060640321 4:-0.5323584105135886 
-1.0 1:-0.8525561353307524 2:-0.8915584999062528 3:0.4057462165169068 4:-0.0875729329071897 
-1.0 1:-0.8786601582225215 2:-0.8502183191944277 3:0.43888077236658396 4:0.02431066452084152 
-1.0 1:-0.8743725972058576 2:-0.8250480536027915 3:0.6083161942732729 4:0.2658836963325364 
-1.0 1:-0.8696078101329743 2:-0.8633125974617764 3:0.45582464119916777 4:0.5755777007141991 
-1.0 1:-0.8730738932839589 2:-0.9309800916624409 3:-0.5510532806723053 4:0.21611138327889812 
-1.0 1:-0.8718640632890086 2:-0.8258123609209559 3:-0.1945797040637861 4:-0.28826015976976505 
-1.0 1:-0.8760611344891432 2:-0.8635782266986255 3:0.3101091385493191 4:0.37284441454264927 
-1.0 1:-0.9008153509510184 2:-0.8587240555957689 3:0.4836675980271097 4:0.03134338237090395 
-1.0 1:-0.8748628177074567 2:-0.8500918908793319 3:0.4556863627885175 4:0.4261013132453604 
-1.0 1:-0.8845312236997138 2:-0.7637060733194819 3:0.11156076243939173 4:-0.5347238319809149 
-1.0 1:-0.8858596195926611 2:-0.726220180347635 3:0.19682114810413953 4:-0.3963398093903717 
-1.0 1:-0.8462669584245077 2:-0.8965985568327361 3:-0.1313825234734748 4:0.0976424543479999 
-1.0 1:-0.8602201649553947 2:-0.9153490166166934 3:0.4548475735711577 4:0.33326981005854184 
-1.0 1:-0.6062124221511531 2:-0.8711376973639658 3:0.6548485126666628 4:1.0 
-1.0 1:-0.8647769735734725 2:-0.8628406598911904 3:0.4837457198850952 4:-0.11829291894836325 
-1.0 1:-0.8646827133479212 2:-0.8958274533949867 3:0.5027931626497761 4:0.5190596767647606 
-1.0 1:-0.8649586938225888 2:-0.8878633233278175 3:-0.1739190585417848 4:-0.1277551867458 
-1.0 1:-0.8620905571452617 2:-0.8552487795902406 3:0.3451891192039518 4:0.2764643136123359 
-1.0 1:-0.8642787409527015 2:-0.8399831240397728 3:0.34364981917988224 4:0.5040994683702451 
-1.0 1:-0.8640579027099815 2:-0.8001325912685648 3:0.25720607790777117 4:-0.19667549579665733 
-1.0 1:-0.8839857263087022 2:-0.6590765679280537 3:0.28630742271295007 4:-0.4947655040871547 
-1.0 1:-0.8530233967345565 2:-0.9421212881059066 3:0.22327220207212073 4:0.3188519586822183 
-1.0 1:-0.8971418953038209 2:-0.8776008412407579 3:0.40138718016227415 4:0.6161427468774521 
-0.7379652784609676 1:-0.8868810637939741 2:-0.7326932281172898 3:-0.2397548253006756 4:-0.5866698793754929 
-1.0 1:-0.8727695674128935 2:-0.9009504639620339 3:0.4419316078519544 4:0.24545685507439519 
-1.0 1:-0.8655175896313752 2:-0.7102933887215486 3:0.1560639676472071 4:-0.20198198203860218 
-1.0 1:-0.8828749368793133 2:-0.7429318384074146 3:0.5304585079364796 4:0.31936405543759294 
-1.0 1:-0.9264366941592325 2:-0.8012145403367849 3:0.3860137784364752 4:0.702709211804766 
-1.0 1:-0.8755037872412051 2:-0.7401116195363685 3:-0.29859555545151406 4:-0.30507474034686843 
-1.0 1:-0.8110735566402962 2:-0.8842982292594306 3:0.4893172782480777 4:0.2723721949943869 
-1.0 1:-0.8462414408348763 2:-0.7576442420117582 3:0.5515910149247452 4:0.6499003977630078 
-1.0 1:-0.858192223531392 2:-0.8922688480839926 3:0.48106222045321423 4:0.5890039465551153 
-1.0 1:-0.87498394209729 2:-0.8384258222654968 3:0.3480692842887756 4:0.49003426544137274 
-1.0 1:-0.8574987375862649 2:-0.8928733270621656 3:0.24834496325992972 4:0.17084668552881976 
-1.0 1:-0.8831422319474835 2:-0.7044343481580277 3:-0.21350193409441365 4:-0.23874377870818775 
-1.0 1:-0.871617572799192 2:-0.8634860863436474 3:0.5831353690519441 4:-0.10457931699630618 
-1.0 1:-0.7861323009594344 2:-0.8601607689366026 3:-0.49021513521171944 4:0.24958039781142416 
-1.0 1:-0.8838444706278404 2:-0.8441598347194645 3:0.6492807651260213 4:-0.08469588022699348 
-1.0 1:-0.8834707961622622 2:-0.4543310001822214 3:-0.17233008172648767 4:-0.4711740212664238 
-1.0 1:-0.8730725467093082 2:-0.9301283568762471 3:-0.2313727854613863 4:0.20373959121154916 
-1.0 1:-0.8439521965998991 2:-0.8160601342244547 3:0.38379043580224037 4:0.596548062846795 
-1.0 1:-0.8713819222353139 2:-0.7808055883145785 3:0.30308660958009437 4:-0.2542796304099951 
-1.0 1:-0.8991974415081636 2:-0.8896504637192179 3:0.5787270642084774 4:0.4762251108901878 
-1.0 1:-0.8791987880828144 2:-0.855059581085208 3:0.23553270634871426 4:0.023063941692756496 
-1.0 1:-0.8791853223363071 2:-0.7561586239309955 3:0.7534745002565837 4:0.6874929550325628 
-1.0 1:-0.8793650900521798 2:-0.8726683610815765 3:0.5375812070929473 4:0.5237267403762442 
-1.0 1:-0.8390102003029793 2:-0.8515945504860893 3:0.6642996242733321 4:0.36903976842146746 
-1.0 1:-0.8498118161925602 2:-0.9071854767894365 3:0.31223067778673674 4:0.0838332997968152 
