svm_type c_svc
kernel_type rbf
gamma 0.5
nr_class 2
total_sv 6
rho 0.4259456499513794
label 0 1
nr_sv 2 4
SV
0.9921204686814056 1:-1.0 2:-1.0 
1.0 1:-1.0 2:-1.0 
-0.6248985905757718 1:1.0 2:-1.0 
-0.10961983577291037 1:-0.2857142857142857 2:0.23076923076923084 
-1.0 1:-0.5 2:0.18518518518518512 
-0.2576020423327235 1:1.0 2:1.0 
